-0.0359263
-0.100965
-0.0473546
-0.114274
-0.0484145
0.0557974
-0.0476838
-0.00663145
0.0234014
-0.0609034
-0.0171717
-0.0906025
0.0585504
-0.00184178
-0.0268825
-0.0492814
-0.0345203
-0.0491952
0.0521655
-0.00478615
-0.0186297
0.0119265
0.0322962
-0.0193134
-0.0552829
-0.0097106
-0.0877941
0.0896625
-0.0537925
-0.00492162
0.00443755
0.00956698
0.0371818
0.0875306
-0.0348964
-0.00902411
-0.0376728
0.0319104
-0.0820119
0.0491883
0.0100314
0.0288931
-0.0388083
-0.0545644
-0.0331387
-0.0292716
0.00409359
-0.0983264
-0.0232018
-0.00598781
0.00932098
0.00923698
0.00931591
-0.0135878
0.0133565
0.0803947
0.0459601
-0.0474913
0.0140515
0.00394256
3.73833e-05
-0.027766
-0.00611186
-0.0154908
0.0224353
-0.0364675
-0.0629294
0.0483209
-0.0172213
0.0236975
-0.0175644
0.0121939
-0.0478161
-0.0150787
0.0182965
-0.0233705
-0.0142514
0.0296212
0.037032
-0.0480635
0.0427575
0.0107822
0.0236289
0.0283735
-0.0324727
-0.0541313
-0.0499146
-0.00914648
-0.020699
0.0783271
-0.0100622
0.0458941
0.0255357
0.0190903
0.0188025
0.00539823
-0.0222494
0.0160249
-0.0826635
-0.134677
0.0167868
0.041673
-0.0671646
-0.0332244
-0.038521
0.0212729
-0.0248896
0.0338388
-0.0180905
0.0733265
-0.035172
-0.0564474
0.0126436
-0.0807779
-0.0273879
-0.000188394
-0.0817953
-0.035946
0.0376422
-0.00786795
0.0132028
-0.00159552
-0.0132542
0.000702217
0.0416953
-0.0110125
-0.0354005
-0.00714733
0.0711327
0.0462211
0.00927401
0.0558445
0.0139496
0.023192
-0.0227379
0.0350012
0.0131358
0.017113
0.0392224
-0.0137967
0.0122919
0.0218408
-0.115311
-0.0159601
0.0282895
-0.0140666
0.0092078
-0.0428589
-0.0263852
-0.0372978
0.0641412
-0.000494428
0.0073218
0.010195
-0.0136772
-0.0575382
0.0730996
-0.00157973
0.00097473
0.0533525
-0.0113489
0.0192333
-0.00230325
0.0157087
-0.0859283
-0.00170667
-0.0543942
-0.0443172
0.0602347
0.0167034
-0.0291183
-0.0126952
-0.121318
-0.0142914
-0.0792666
-0.0580068
-0.0508634
0.0240064
0.0176385
-0.0310994
0.0298547
0.0634485
-0.0140325
0.0154625
0.0354639
-0.0433305
0.0168884
-0.103456
-0.0658235
0.012745
0.0376607
-0.0196003
0.0201194
0.033401
0.0677456
0.0835095
0.0201053
-0.0470308
0.0377712
0.0161194
0.0474889
-0.0146095
0.0479233
-0.0383399
0.102117
0.0208401
-0.0455871
-0.0392288
0.063251
-0.0696388
-0.00930561
-0.0636706
-0.0991587
-0.0169565
0.058343
0.0114794
0.00232588
0.073429
0.00831639
0.0212172
0.0754782
-0.0460318
0.00559391
0.0332495
-0.032584
-0.0678953
0.00666209
0.0797853
0.0607463
-0.00204322
0.00118781
-0.0213328
-0.0558263
-0.0529516
0.0484901
-0.020873
0.0659053
-0.0212848
-0.0595591
-0.0699778
0.0195276
-0.00654966
-0.0398546
-0.100637
0.0305976
-0.0192836
-0.0240539
0.0304626
0.0323126
-0.0729531
-0.00894367
-0.0796139
-0.0145717
0.0691634
-0.10966
-0.00793968
-0.0023668
0.0821646
-0.0924488
0.0407861
-0.0198857
-0.0392989
-0.0180492
-0.0393283
-0.0673815
0.0371525
0.0344995
0.018761
0.0187428
-0.0114842
0.102615
0.0416822
0.0378617
-0.00424682
-0.0589133
-0.100145
0.00828204
0.00663511
0.00828359
-0.122387
0.00270848
0.0027203
0.0147773
-0.0492008
0.0120443
0.00160624
0.023757
0.0410129
0.00759382
-0.027811
0.0245108
-0.0640865
0.0243235
0.072476
-0.019608
-0.0241546
-0.00172712
0.000917047
0.00597519
-0.103147
0.0534173
-0.0394785
-0.019757
-0.0146369
-0.105156
0.0701401
0.083995
0.000545323
-0.00645933
-0.0162722
0.0186268
0.0255544
-0.0487812
0.014668
-0.0539873
0.0380115
0.0362862
0.0976408
-0.0253262
-0.0534741
-0.0989268
0.00633287
0.0527262
-0.0151044
0.0249534
-0.0119602
-0.056562
0.0503616
-0.0450611
-0.100015
-0.0148824
-0.0109107
-0.066519
-0.0295514
0.0160807
0.0347183
-0.0293839
0.00304209
-0.00319115
-0.0148991
0.0367625
0.0134425
-0.0545498
0.00882708
-0.0285532
-0.0242862
-0.0264529
-0.00808562
0.0609362
-0.00602671
0.014105
-0.0461947
0.00191817
-0.120582
0.108386
0.0342717
-0.0128194
0.0825295
-0.0292716
0.00538455
0.0439134
0.00980388
0.000498567
0.00790107
0.031535
0.0823055
0.0353908
0.00648864
-0.00974177
-0.07613
0.0499653
0.0110429
0.0230472
-0.0564218
0.0659387
-0.0668748
-0.0279269
-0.025333
-0.0617418
-0.00618327
-0.0241459
-0.0202161
0.0354766
-0.0157904
-0.0381519
0.00428627
-0.0176115
0.0435931
0.11748
0.0508412
0.00901146
0.00833791
0.0430673
-0.0140558
-0.147573
-0.0242453
0.133301
0.00431375
-0.0369609
-0.116087
-0.0454521
-0.015944
-0.0120275
-0.023234
0.0808791
0.00503851
0.0282132
0.00597541
-0.00140701
0.0331582
-0.0398254
-0.0544692
0.0295947
0.0365234
-0.0864214
0.066458
-0.0271355
-0.0275859
-0.0149723
-0.0417075
0.0219886
-0.0498686
-0.0415404
0.00325435
-0.0602863
0.0120928
0.0653427
-0.000485584
0.0362447
0.0538605
-0.00830668
-0.0197052
0.0753314
0.0399985
0.0905922
-0.0940682
0.0922355
0.00854664
-0.0278488
-0.0110752
0.00517493
-0.0332729
0.0650768
0.0663261
-0.0920594
0.0110859
-0.0365752
-0.0690363
-0.0804475
-0.0285205
0.0794918
-0.045902
-0.0132374
0.0918171
0.0380045
-0.00132573
0.0105032
0.0397712
0.0402897
0.0129322
0.0535009
0.0124752
-0.0551992
0.0159293
0.0435116
-0.011952
-0.0097497
0.119795
0.0333046
0.013776
-0.0616882
0.0271071
-0.0670834
-0.0239337
-0.0905127
-0.00981386
-0.0345069
-0.045053
0.00211704
0.0355064
-0.000402495
0.0158361
-0.00620154
-0.0958692
-0.00891852
-0.0986484
-0.000477582
0.00159489
0.000426538
0.0306243
-0.027204
-0.0188187
0.092611
-0.0702373
-0.141804
0.100334
-0.00312109
0.0026844
0.0480919
-0.0559475
0.117666
-0.026882
0.0455992
-0.0525087
-0.0540014
0.0221592
-0.0152579
-0.0152981
-0.0412503
0.0306845
-0.0136143
-0.0360759
-0.00677951
0.0513507
0.107502
0.0149321
-0.00366989
0.0100177
0.000114501
0.0438308
-0.028761
-0.00121264
0.0169716
0.00222052
0.0240339
-0.0234247
-0.0187172
-0.0469631
-0.0548059
-0.00106168
-0.0118086
-0.00922263
-0.043488
-0.0109781
0.0781955
0.151524
-0.0260212
-0.0133779
0.0361351
0.0142467
0.0535145
0.00225256
-0.0124681
0.0186851
-0.0253587
0.000930076
-0.0282544
-0.0710428
0.00915077
-0.0475923
-0.0360059
0.034066
-0.0105809
0.077151
-0.062217
-0.0633665
0.0138247
-0.079486
0.0294971
0.00767285
0.0314462
-0.0543616
0.0315724
-0.00796621
-0.0358402
0.0417189
0.10174
0.0999229
-0.00662214
0.0256957
-0.0249915
0.0687614
-0.00578428
-0.0485174
-0.0790128
0.0255328
0.0306112
-0.0388822
0.0731187
0.0222381
-0.0283893
-0.0480306
0.00539562
-0.00231177
-0.00772834
-0.0434854
0.103909
-0.0825672
-0.0377563
-0.0183416
0.0135002
-0.000313148
0.0273229
0.0409582
-0.0613204
0.0297302
-0.0132712
-0.0142263
0.0650607
0.0287678
0.0564077
-0.0348994
-0.0103161
-0.104889
-0.0544273
-0.0194839
0.0282414
0.0851128
-0.0212491
-0.0826864
0.101263
0.0253675
-0.00763333
0.0400782
-0.0245083
0.0283946
0.0277241
-0.0293374
-0.00382261
-0.0271455
0.0216934
-0.0738157
-0.0431918
-0.0386335
0.0218763
-0.00156437
-0.00245025
0.0852154
0.0460143
-0.0361836
0.0483769
0.0120678
-0.0609125
-0.00201397
0.0179533
0.0135109
-0.0225772
-0.0167658
0.00858744
-0.0457153
0.0212698
-0.0216869
0.0683609
0.0334514
-0.0662797
-0.0153506
0.0272541
0.000158727
0.0190286
0.00635537
-0.00821018
0.000779092
0.0432153
-0.0209425
0.0978047
0.0201876
-0.0199878
0.00709521
0.0801741
-0.0507084
-0.0142779
0.0297638
0.073729
0.109778
-0.0516727
-0.01206
0.0240567
-0.0072194
-0.0460438
0.00728687
-0.127626
-0.00242898
-0.00799451
0.015377
0.0422194
0.0101422
-0.0229187
-0.0217646
-0.000214294
0.022041
0.0290899
-0.00848843
0.014951
-0.0659841
-0.0296195
0.0196349
-0.0781534
0.0153657
0.0100462
0.0392319
-0.00742417
0.048571
0.00351945
-0.0438326
-0.0490122
0.0179263
0.0410869
-0.0576164
-0.0608438
0.0162509
-0.00557958
0.0828509
0.0129801
0.0907536
0.00235119
0.017216
0.0193723
0.0418987
0.0242844
0.0234525
-0.00406156
0.000643894
0.0261792
-0.0395393
0.0611521
-0.0251797
-0.0786179
-0.0122304
0.0632826
-0.100849
0.0013217
0.00445141
0.0118055
0.0282132
-0.0376393
0.0201603
0.00608054
0.0161047
-0.0414746
0.0797252
0.0591401
0.00130276
-0.0494073
0.0316312
-0.0160417
-0.0419574
-0.0305424
-0.0122168
-0.0385555
-0.00876526
-0.00573878
-0.0439467
-0.0525784
0.0464553
0.0116517
0.0810291
-0.0225347
-0.0292749
0.0462812
-0.0484578
-0.0905021
-0.0687394
0.0500056
-0.109139
-0.0165948
0.0594321
0.0364567
0.0186371
-0.0505801
-0.0599697
0.0566119
0.0509897
-0.0176523
-0.0169598
-0.0030596
-0.000584349
0.0903923
0.0705898
-0.00166513
-0.118583
-0.098268
0.128455
-0.0518027
0.0119292
0.0132253
-0.019929
0.0255012
-0.00638446
-0.0135424
-0.0712002
-0.103922
0.0139018
-0.00171946
-0.0248581
-0.0524122
-0.0181361
-0.00749564
0.0596454
0.00775147
0.0021463
-0.0381361
0.0580804
0.0309686
0.0407223
-0.0617158
-0.0251796
0.104536
0.111611
-0.0299585
-0.037477
-0.0887554
-0.000202172
-0.0712784
0.003599
-0.0035135
0.0198609
-0.0176282
-0.0143072
0.0446279
0.0215581
0.0464815
0.0239841
0.123781
-0.00997441
-0.00239915
-0.0616533
-0.0152993
0.074688
-0.0302525
-0.0569141
0.0467303
-0.0991343
-0.0424961
0.0581662
0.0964718
0.000464693
-0.0479661
-0.000177771
-0.0276372
-0.075495
0.0825449
-0.0501513
-0.00209033
0.0696732
0.0378047
0.0128249
0.0529533
0.0777276
-0.0511775
0.0312668
0.0459684
-0.0492935
0.0382748
0.0328211
0.0359168
0.0273707
-0.0684731
0.0202543
-0.0803337
0.0526982
-0.00796207
-0.0425991
-0.0255644
-0.0359136
-0.0639341
0.0364785
0.0476808
-0.00747404
0.0683421
-0.0617511
-0.10654
-0.0116771
-0.0715244
0.00766173
0.0810804
-0.0832481
-0.0110688
-0.0529695
-0.0634923
-0.0903401
-0.0778256
0.000441641
-0.0506102
-0.0225877
0.041253
-0.00943702
0.0190776
0.0374236
-0.0890692
-0.0103069
-0.0707493
-0.0082253
-0.0344802
-0.0127772
-0.0320684
-0.0475433
-0.131463
0.000258282
0.00935262
0.0237729
0.0146128
-0.0254023
-0.0516822
0.0656516
-0.0485769
-0.0469256
0.00766744
0.0440354
-0.0111099
0.0226135
0.106874
0.0905472
-0.0635365
-0.0688909
-0.0637015
-0.0279449
-0.00245795
-0.0467224
0.0499693
-0.0127864
0.0542448
0.036135
0.0252171
0.00842883
-0.00498658
-0.0269444
0.0336884
-0.00167668
0.0289046
0.0513776
-0.148978
-0.0232081
0.0435081
-0.18025
-0.00327442
-0.032372
0.063237
-0.0326515
0.0536354
-0.062832
-0.0477485
0.0228984
0.0510815
0.0111824
0.110114
0.0530571
0.0161985
-0.0120904
-0.0191463
-0.107144
0.00534873
0.0278328
-0.112742
0.064256
0.0161279
0.0262091
-0.0805003
-0.0210249
0.0170023
0.0598182
0.0376035
-0.0265852
-0.0313513
0.0109233
-0.0256548
0.0252242
-0.0672148
-0.0812686
-0.065909
0.0203413
-0.00433369
-0.00829406
-0.0508046
-0.0589681
-0.0399636
-0.00869647
0.0206592
-0.00149512
0.0626734
0.0183983
-0.112343
0.0362847
-0.0238836
0.0198981
-0.0186141
0.0233431
0.0581299
0.0451486
0.0151828
-0.0244725
-0.0170848
-0.0652766
0.00347383
-0.0727477
-0.00110671
0.0232423
0.0619985
0.0325792
0.00263638
-0.122629
-0.0245342
0.0511851
0.0134391
-0.0761232
0.0284729
0.00939318
-0.0156495
-0.0099944
0.093772
0.00164558
0.052272
0.00654288
-0.00720793
0.00616257
0.0368979
-0.074613
-0.0468992
0.0427459
-0.0467469
-0.0145911
0.00669721
0.000889704
-0.0418341
0.0250119
-0.0650719
0.0338765
-0.00732221
-0.0258495
0.00384366
-0.0661339
0.0931016
-0.0881779
0.048696
0.0505241
0.0258662
0.0673207
0.0638637
-0.0406619
-0.00783595
0.0144294
0.0751042
-0.016273
0.085111
-0.00313807
-0.0216892
0.0642698
0.062553
-0.0183728
0.0351923
0.0272283
0.0972013
-0.046581
-0.0684615
-0.0191172
-0.0374019
-0.0558194
0.0152547
-0.0486224
-0.0915491
0.0045132
0.0284787
0.0200969
0.00712092
0.0347958
0.0282275
0.0405793
-0.0327421
-0.0215355
-0.0626979
-0.0637382
-0.0547309
-0.00779402
0.0605691
-0.133455
0.0412063
0.0648179
0.0511493
0.0672196
-0.00177686
-0.00492758
0.0575169
-0.027869
-0.00575659
-0.0140635
0.00576738
0.0240441
-0.0267177
0.0418176
-0.00367317
-0.0310634
-0.0710131
0.0257752
-0.068864
-0.0264586
0.0201102
-0.0519522
0.0958607
0.0457549
-0.0730362
0.0219771
0.0368274
-8.07643e-06
-0.0139554
0.000173569
0.0687343
-0.0102324
0.0581999
-0.0545469
-0.0396498
0.0438999
-0.159416
0.00378576
0.0829489
-0.0339336
0.141042
0.017724
0.0458172
-0.0140946
-0.0365186
0.0494421
0.0043692
-0.104329
-0.0509237
0.07031
0.0593343
-0.0516891
-0.093914
-0.0442379
-0.0936045
-0.0418055
-0.0440738
0.0180069
0.0799355
0.0558998
-0.103831
0.0591755
-0.0265651
0.041212
0.00976454
-0.0329717
-0.0245984
0.0731708
0.040109
0.0221219
-0.0325985
0.023035
-0.101153
-0.0273189
0.0507768
0.0270386
0.0556847
0.0595622
-0.0187887
-0.0098545
-0.0697635
-0.0553354
0.00444771
0.0135921
-0.0616754
0.0503377
-0.0480929
0.0318146
-0.0333773
-0.0686323
0.0171041
-0.00445003
-0.0706968
0.0293435
-0.0222293
-0.0400342
0.0462727
-0.0044367
0.0511146
0.0408751
0.0676257
-0.0292202
0.0473049
0.0012911
0.129979
-0.0151816
-0.00994266
-0.0417635
-0.083162
0.0500511
0.082622
-0.0239198
-0.00298939
-0.0258134
0.0174627
0.00172596
0.0440608
0.0562226
0.0202756
0.0367721
-0.00824313
0.0379944
-0.0692438
-0.0598297
-0.0213676
0.0202765
-0.0851766
0.0445258
-0.00411478
-0.0149454
-0.09908
0.0795594
0.0223754
0.0392761
-0.0708725
0.0114274
0.0617811
-0.0248078
0.0461461
-0.0182762
0.0786935
0.00757599
0.00332074
-0.012221
-0.0370399
-0.0122503
-0.0191822
-0.0504443
0.0469398
0.0494381
0.0416719
-0.0107907
-0.0334978
0.0471786
-0.0314227
-0.00892083
0.0686029
-0.107301
-0.0451876
0.0658659
0.00110553
-0.151894
0.0239396
-0.0495779
0.0196183
0.0597966
-0.0992381
0.097782
-0.0738021
0.0316178
0.0485052
-0.0257074
-0.0336111
-0.0300829
-0.0603201
-0.0562127
-0.0262822
-0.0394435
0.0214635
0.00805607
0.0464478
0.0767787
-0.0250516
-0.0361696
0.0686808
0.0128388
0.101548
0.0130275
0.047385
0.00329252
-0.00789741
-0.00370668
0.009206
0.01037
0.0284846
0.016746
0.0203852
0.0163771
0.0512664
-0.01887
-0.00308239
-0.00686286
-0.0845687
-0.036747
-0.034465
0.0509353
-0.00781935
0.0227269
-0.0151442
-0.0891079
0.0551929
0.155287
0.0166772
0.0314074
0.05866
0.0398236
-0.0207391
-0.0263158
-0.097395
-0.07602
-0.0120651
-0.0117001
-0.00916973
-0.0467118
-0.0278723
0.00815886
0.0139683
-0.0039027
-0.0311268
-0.0423653
0.0271839
-0.0571949
-0.0119308
0.0122724
0.0128221
-0.0425357
-0.0534451
-0.0410886
0.0528467
0.00335598
-0.00412489
0.0497506
0.000445217
0.00698197
-0.0470795
0.140902
-0.0173078
0.000805631
-0.0434576
-0.0160803
-0.00179135
-0.0280415
0.0420332
-0.0350062
0.0615784
0.0608944
-0.0418193
0.0742336
0.0182818
-0.000353828
0.0168701
-0.161595
-0.0132591
-0.0492961
0.0174936
-0.0184714
-0.0597189
-0.0870795
0.0458701
0.0076936
0.0442447
0.000802053
-0.00740562
-0.0205214
-0.093275
-0.00331869
-0.0905154
-0.0582522
0.0720169
-0.0183204
0.0357158
0.0143315
-0.090408
0.00217328
-0.00117098
-0.0012519
0.0197001
-0.0553348
0.0726023
-0.0824376
-0.0818405
0.0255604
0.0207481
0.0465062
0.0186188
0.0211773
-0.0245117
-0.03922
-0.0243702
0.0690997
-0.0601057
0.0459576
0.0580452
-0.00644423
0.0296154
0.020549
0.00110453
-0.130879
-0.021798
-0.0398346
-0.0412767
0.0432729
-0.0057805
0.0213208
-0.0318862
-0.0259894
0.0396055
0.0264857
0.137125
0.0450801
-0.0312557
-0.0700382
0.00767331
-0.0471486
0.0474018
0.0610517
-0.11179
-0.00733764
0.067292
0.039251
0.0066727
0.071154
-0.0255544
-0.00311421
-0.0146773
0.00120138
0.0568424
-0.0397302
-0.0203194
0.0496242
0.0800013
-0.0207891
0.0399291
0.00849725
-0.0109669
-0.0590223
0.00540638
0.0101056
-0.0345446
-0.0847404
0.00881217
0.0175377
0.034397
-0.0443923
-0.031348
0.0168633
-0.147178
-0.0304256
0.0379841
0.0837623
-0.0458224
0.0398697
0.0666138
-0.0320744
0.0264329
-0.0306891
0.00844661
-0.0246641
0.0277554
0.0676336
0.0205391
0.0533351
0.0302371
-0.00292788
-0.0437343
-0.00602135
-0.0142067
-0.0522998
-0.0430102
-0.0651086
0.0669195
-0.0413487
0.0571818
-0.0877039
-0.0565626
0.112451
0.0710309
-0.0187024
0.0270022
0.0629499
-0.04575
0.0292549
-0.0287902
-0.0173542
-0.0241868
0.00276257
-0.0595745
0.0245943
0.0377959
0.000444382
-0.0677174
0.0556184
-0.022139
-0.0997332
0.0146629
0.000793114
-0.0742173
-0.0272354
-0.00853077
0.00188956
-0.0151028
0.0203305
0.0325843
0.0496937
-0.0789784
-0.0473765
-0.0330065
-0.0198927
0.00226996
0.0130875
0.00428978
-0.0118161
-0.0435955
-0.121724
-0.0433568
0.0877395
0.0283752
-0.0016361
0.0679101
0.0371006
0.0232183
0.00776949
-0.0898786
-0.00242136
0.0144756
-0.0176041
0.0461524
-0.0542388
0.013191
0.0319255
-0.0849732
-0.00860704
0.084548
-0.076004
-0.053646
-0.0579821
0.0516456
0.117335
0.0111757
-0.0181666
-0.028355
0.0213427
0.042809
0.0625063
-0.0375979
-0.0118113
0.0109626
0.0903814
0.0664017
0.0744141
-0.0202695
-0.0171294
-0.112019
0.00606488
0.0583005
0.0300403
0.101239
-0.00857389
0.0934482
-0.0149673
-0.00125548
-0.0625895
0.0144069
0.00494222
-0.114267
0.0618813
-0.00662513
0.0220105
-0.0230653
2.40356e-05
0.0109831
-0.0635287
-0.0344074
0.0403487
0.0409084
-0.069569
-0.0286527
-0.0566322
-0.0315299
0.0288247
-0.0252174
0.102061
0.0308374
0.000472963
-0.0283466
0.0567905
-0.0797348
0.0573698
-0.0413799
0.00305257
-0.074272
-0.0296814
0.137767
0.0697802
0.120773
-0.0355651
0.00255848
0.00388235
0.0384772
0.073443
0.0217403
0.0133944
-0.0210136
0.0599333
-0.00423651
0.0315502
-0.0939142
-0.0215577
-0.00694654
0.0273135
0.0056517
-0.0481703
-0.0505946
-0.10156
-0.0225611
0.0499899
0.0298694
-0.0615612
0.0612635
0.00530421
0.0304423
-0.0694778
0.010438
0.0932431
-0.0211901
-0.0103942
0.0917029
0.0705205
0.119151
-0.0462801
-0.0331665
-0.000938341
-0.0123109
-0.083762
-0.0658062
0.00421552
0.00267521
-0.00603034
0.0781712
0.0419318
0.0423524
0.061207
0.0302114
0.0481802
0.00358777
0.0042975
0.024399
-0.0284712
-0.0530275
-0.0241334
0.0893493
-0.0177455
-0.0284503
0.00981283
0.0534158
-0.0018812
-0.00455953
0.0501217
0.0323416
-0.0311382
0.00221959
-0.0692788
-0.0576934
0.00822686
-0.0271516
0.0316478
0.0306064
-0.00650238
0.0135812
0.00300354
-0.0517932
-0.00813583
0.000472151
0.0437919
0.0102697
0.0967118
-0.0421105
0.0254348
-0.0126305
-0.0529571
0.0505068
-0.0253851
-0.109439
0.0332704
0.00280098
-0.0316692
-0.0329357
-0.066821
0.0742021
0.047985
0.0473941
0.237722
0.115879
0.0156223
-0.0405598
0.000449523
0.0209299
0.0522238
0.0349302
-0.0617492
-0.0200353
0.0430467
0.0751997
-0.0104301
0.0326713
-0.000818482
0.0504052
-0.0437876
-0.0896498
-0.0315535
-0.0326877
-0.0452489
-0.0110055
-0.0293099
0.118411
-0.0141636
-5.5097e-05
0.0125608
-0.0447513
-0.110017
-0.0241722
0.102212
-0.148933
0.0587702
-0.0300899
-0.029374
-0.000987813
0.0453645
-0.0285449
0.0520869
-0.0336042
0.00630214
-0.00167966
-0.109903
-0.130405
0.00500996
0.0951728
-0.0311725
-0.012696
-0.0932862
-0.0230364
0.0471535
-0.0133522
-0.0488028
-0.0707226
0.0564304
-0.0339605
0.0171742
